#pragma once

#include <stdint.h>

/*
 * Auto-generated by pc/scripts/export_depthwise_full_channel.py.
 * Data for the PL full-channel scheduler validation.
 */
#define IRDET_DW3X3_FULL_CH_CHANNEL      11
#define IRDET_DW3X3_FULL_CH_HEIGHT       40
#define IRDET_DW3X3_FULL_CH_WIDTH        32
#define IRDET_DW3X3_FULL_CH_COUNT        1280
#define IRDET_DW3X3_FULL_CH_FRAC_BITS    8
#define IRDET_DW3X3_FULL_CH_INPUT_SCALE  256
#define IRDET_DW3X3_FULL_CH_ACC_SCALE    65536
#define IRDET_DW3X3_FULL_CH_BIAS_Q       1189

static const int16_t IRDET_DW3X3_FULL_CH_WEIGHT_Q[9] = {
    79, 190, 77, (-466), (-241), (-588), 123, 550, 360,
};

static const int16_t IRDET_DW3X3_FULL_CH_INPUT_Q[1280] = {
    113, 63, 59, 63, 82, 68, 66, 66, 76, 68, 73, 71, 62, 57, 67, 67,
    66, 70, 65, 51, 85, 69, 74, 70, 74, 73, 65, 59, 78, 55, 75, 62,
    233, 79, 49, 15, 50, 41, 20, 39, 35, 50, 36, 46, 34, 13, 29, 15,
    30, 41, 44, 12, 21, 29, 40, 47, 70, 46, 34, 39, 32, 31, 27, 31,
    90, 29, 58, 28, 41, 40, 59, 45, 52, 70, 28, 44, 30, 26, 19, 24,
    42, 28, 43, 18, 48, 42, 40, 39, 39, 33, 50, 58, 33, 58, 32, 36,
    65, 18, 34, 29, 69, 44, 30, 36, 41, 62, 45, 35, 25, 39, 49, 33,
    41, 54, 26, 13, 32, 35, 50, 61, 43, 39, 37, 45, 71, 47, 31, 35,
    65, 23, 50, 50, 83, 99, 74, 49, 67, 38, 30, 33, 38, 22, 31, 42,
    32, 55, 26, 54, 66, 46, 63, 35, 24, 34, 37, 61, 46, 33, 37, 45,
    60, 41, 42, 56, 64, 101, 86, 37, 39, 40, 56, 37, 21, 32, 26, 37,
    42, 30, 28, 48, 43, 24, 25, 18, 37, 45, 56, 42, 40, 21, 46, 37,
    60, 25, 39, 33, 90, 106, 60, 40, 37, 38, 55, 37, 42, 22, 33, 37,
    40, 18, 62, 42, 30, 40, 25, 26, 52, 50, 68, 55, 51, 14, 33, 36,
    69, 49, 27, 28, 67, 115, 64, 13, 56, 73, 122, 52, 19, 31, 51, 27,
    20, 28, 17, 38, 55, 29, 42, 18, 35, 48, 55, 42, 73, 34, 36, 43,
    78, 54, 41, 61, 90, 128, 71, 18, 38, 70, 80, 56, 86, 38, 36, 49,
    53, 54, 31, 45, 42, 42, 66, 40, 38, 52, 45, 26, 51, 32, 68, 89,
    75, 59, 56, 61, 131, 108, 50, 36, 28, 33, 31, 51, 145, 47, 27, 16,
    39, 56, 43, 25, 32, 37, 48, 19, 41, 56, 43, 45, 56, 47, 60, 59,
    73, 23, 49, 51, 103, 83, 50, 65, 83, 41, 36, 37, 163, 56, 35, 26,
    44, 61, 42, 28, 53, 42, 34, 21, 39, 57, 39, 53, 35, 22, 26, 43,
    72, 51, 45, 64, 77, 67, 44, 46, 116, 46, 46, 37, 169, 49, 39, 43,
    22, 56, 46, 27, 45, 41, 23, 25, 48, 41, 24, 30, 42, 46, 25, 64,
    66, 48, 77, 64, 56, 99, 39, 51, 66, 93, 55, 85, 114, 81, 50, 34,
    60, 58, 54, 16, 36, 47, 41, 33, 27, 36, 33, 51, 28, 48, 18, 54,
    87, 84, 116, 80, 102, 113, 50, 76, 88, 97, 107, 130, 87, 48, 34, 41,
    44, 52, 31, 38, 48, 51, 34, 29, 23, 32, 64, 55, 34, 43, 73, 53,
    68, 33, 53, 44, 36, 56, 55, 54, 72, 61, 69, 47, 74, 38, 37, 33,
    56, 41, 37, 30, 42, 43, 37, 32, 45, 67, 95, 52, 57, 45, 45, 42,
    73, 79, 71, 68, 70, 64, 88, 66, 73, 102, 28, 38, 68, 51, 24, 71,
    121, 96, 40, 49, 81, 48, 55, 32, 46, 46, 78, 52, 44, 61, 43, 59,
    69, 26, 36, 50, 76, 67, 103, 49, 70, 90, 44, 49, 144, 38, 48, 83,
    162, 98, 76, 84, 60, 33, 54, 64, 69, 55, 149, 147, 99, 81, 44, 37,
    79, 55, 38, 36, 53, 98, 35, 97, 131, 64, 42, 52, 85, 50, 34, 44,
    64, 85, 55, 59, 77, 39, 25, 16, 50, 89, 116, 114, 73, 64, 53, 67,
    61, 44, 42, 21, 22, 188, 111, 77, 161, 74, 14, 75, 33, 43, 23, 38,
    65, 48, 48, 73, 61, 85, 52, 35, 45, 50, 41, 83, 34, 68, 66, 58,
    26, 0, 0, 0, 0, 141, 203, 54, 237, 4, 0, 14, 82, 42, 44, 26,
    46, 25, 26, 85, 114, 77, 31, 0, 10, 0, 0, 0, 20, 48, 29, 10,
    21, 0, 0, 0, 0, 46, 37, 16, 44, 3, 20, 31, 89, 35, 5, 15,
    48, 42, 49, 62, 51, 2, 0, 0, 0, 0, 0, 0, 6, 12, 13, 13,
    68, 22, 11, 5, 26, 32, 47, 37, 17, 16, 27, 92, 106, 137, 76, 58,
    136, 83, 40, 44, 32, 15, 27, 54, 55, 27, 5, 0, 0, 0, 28, 28,
    63, 23, 43, 25, 29, 38, 41, 33, 26, 53, 42, 40, 57, 20, 19, 30,
    101, 92, 120, 36, 60, 49, 0, 45, 48, 30, 9, 30, 13, 17, 3, 16,
    53, 22, 35, 48, 49, 28, 48, 25, 18, 29, 67, 22, 8, 0, 24, 5,
    25, 78, 94, 54, 63, 38, 27, 12, 0, 9, 38, 25, 55, 49, 22, 26,
    67, 36, 25, 51, 49, 40, 37, 41, 36, 87, 40, 52, 59, 31, 22, 36,
    33, 32, 88, 88, 63, 34, 36, 44, 32, 25, 44, 33, 51, 49, 21, 43,
    55, 42, 31, 21, 33, 43, 25, 50, 67, 56, 27, 33, 32, 28, 22, 35,
    33, 34, 48, 105, 62, 44, 40, 34, 23, 36, 26, 34, 75, 71, 42, 36,
    68, 48, 36, 76, 55, 45, 36, 58, 65, 27, 25, 32, 36, 34, 26, 29,
    40, 29, 28, 68, 30, 47, 101, 47, 0, 39, 16, 34, 44, 58, 60, 35,
    84, 49, 0, 42, 46, 48, 43, 76, 38, 19, 44, 17, 36, 53, 40, 36,
    54, 52, 52, 49, 57, 96, 87, 70, 56, 39, 61, 58, 25, 23, 31, 33,
    54, 30, 24, 44, 36, 41, 71, 78, 34, 23, 32, 32, 15, 36, 24, 28,
    35, 31, 64, 46, 40, 70, 83, 67, 67, 66, 47, 81, 43, 9, 37, 69,
    54, 38, 32, 39, 42, 27, 74, 33, 39, 36, 32, 36, 24, 28, 31, 32,
    37, 26, 51, 47, 33, 64, 39, 70, 83, 64, 95, 67, 50, 45, 47, 35,
    90, 42, 16, 38, 41, 43, 24, 33, 43, 25, 33, 39, 53, 43, 41, 10,
    43, 33, 37, 44, 43, 40, 41, 42, 96, 110, 87, 71, 61, 33, 24, 47,
    75, 40, 21, 34, 65, 60, 30, 25, 31, 14, 21, 18, 43, 52, 30, 32,
    28, 35, 33, 39, 40, 23, 70, 54, 54, 95, 127, 58, 38, 30, 48, 34,
    50, 38, 34, 42, 41, 29, 32, 15, 33, 31, 48, 16, 71, 25, 38, 24,
    7, 31, 8, 19, 22, 28, 35, 40, 38, 61, 72, 65, 25, 47, 37, 64,
    51, 32, 47, 38, 70, 43, 66, 28, 28, 43, 44, 32, 50, 36, 21, 26,
    33, 23, 28, 54, 39, 66, 45, 56, 70, 57, 40, 51, 69, 59, 41, 82,
    56, 43, 30, 52, 45, 30, 40, 41, 42, 64, 44, 26, 43, 30, 27, 28,
    15, 27, 14, 36, 49, 50, 49, 39, 83, 63, 50, 80, 87, 102, 27, 59,
    41, 35, 42, 42, 38, 36, 31, 43, 70, 49, 27, 38, 58, 43, 9, 27,
    37, 19, 30, 39, 47, 46, 81, 49, 46, 64, 41, 41, 83, 96, 77, 59,
    61, 34, 31, 20, 19, 34, 35, 37, 48, 55, 37, 48, 29, 47, 36, 23,
    33, 12, 18, 38, 27, 50, 76, 45, 34, 47, 60, 54, 69, 78, 62, 85,
    54, 45, 34, 24, 15, 18, 49, 32, 43, 32, 26, 24, 33, 50, 37, 36,
    43, 55, 38, 32, 43, 50, 38, 52, 53, 43, 33, 75, 64, 51, 57, 61,
    63, 36, 17, 43, 39, 22, 5, 77, 28, 42, 29, 26, 34, 46, 62, 29,
    21, 30, 39, 40, 35, 60, 50, 49, 41, 54, 57, 79, 40, 39, 76, 39,
    64, 23, 23, 40, 22, 46, 19, 30, 32, 44, 29, 48, 24, 43, 46, 24,
    27, 21, 45, 31, 45, 47, 39, 39, 35, 55, 54, 56, 52, 39, 37, 65,
};

static const int32_t IRDET_DW3X3_FULL_CH_EXPECTED_ACC[1280] = {
    93502, (-11595), (-37365), (-57427), (-43810), (-56319), (-55130), (-53651),
    (-45820), (-48774), (-47330), (-44428), (-51317), (-59064), (-57967), (-62371),
    (-53994), (-42577), (-43521), (-71800), (-60168), (-65629), (-47472), (-37707),
    (-31348), (-42958), (-44788), (-52032), (-43886), (-61808), (-49149), (-28332),
    (-15155), (-81900), 10331, 5579, 24228, 29011, 30895, 36223,
    29405, 31182, 6724, 15810, 16965, 10877, 24002, 20182,
    22216, 11021, 19804, 19284, 42710, 29821, 16506, (-4684),
    (-1293), 3159, 23726, 29411, 26955, 32796, 23071, 22577,
    55030, (-14519), 5293, (-1152), 25939, (-5482), (-13216), (-17791),
    (-10594), 14003, (-4743), 7884, 1357, 19325, 21701, 8243,
    19510, 7236, 5339, (-22170), (-4493), (-3386), 16320, 22878,
    19960, 2609, (-5899), 11928, 5157, 9257, (-9322), 8687,
    38303, 2300, 31351, 14373, 45696, 47472, 40639, 31812,
    13458, 186, (-11836), 5486, (-21), (-11965), (-5810), (-5978),
    (-1224), 9276, 14388, 34295, 40117, 19392, 3790, (-12884),
    (-17755), (-1831), 10703, 3526, (-4527), (-8233), 5279, 16977,
    33496, (-7821), 7439, (-10450), (-3089), 5643, (-6600), (-27165),
    (-4327), 8610, 22030, 3840, 1856, 2652, 5258, 9771,
    (-5429), 4981, (-15882), (-10437), (-18933), (-37180), (-15866), (-5570),
    13859, 23172, 5591, 3526, (-2337), 0, 3935, 8209,
    18742, (-12823), (-9395), 5677, 19343, 18491, (-2267), (-7721),
    9505, 521, 6784, 7629, 7162, 7118, 3293, 7162,
    2849, 10043, 17114, 10211, 10760, 14162, 19725, 13015,
    17165, 9755, 19790, 16480, 15584, (-10954), 4495, 6168,
    42176, 5193, 7224, (-16131), 7848, 23822, (-4994), (-6158),
    23380, 48400, 59918, 5463, (-1728), 4399, 13128, (-5985),
    1337, (-23091), (-8977), 1969, 10041, 10586, 2415, (-11393),
    (-2198), (-8787), (-2136), (-2113), 25127, 5976, 18254, 15877,
    31413, 7897, 18462, 29737, 35326, 43520, 8659, (-17194),
    141, (-27884), (-3736), 6842, 34615, 9353, 11547, 22331,
    33849, 33858, 18028, 10640, 9027, 7795, 32747, 11416,
    16466, 9289, 2481, (-19543), 1913, (-4608), 34909, 40811,
    30012, 6394, 1450, 14672, 18039, 12237, (-10164), (-10711),
    (-8521), (-19987), (-11219), 4889, 45071, (-4490), (-13398), (-21700),
    (-14503), 4535, (-10000), (-5441), (-4919), (-12658), (-8361), (-21004),
    (-370), 11932, 15038, 12110, 31027, (-936), (-9585), (-1104),
    15830, (-22060), (-10777), (-23720), 2266, (-2069), 3740, 36484,
    40698, 30141, 11557, (-3768), 52893, (-13349), 12485, 12499,
    18863, 15151, 4334, 10189, 22554, 7375, 11571, (-4354),
    8463, 9837, 471, (-3653), (-13016), (-30404), (-15078), 8140,
    46825, 7369, 22735, 56, 16163, 668, (-17954), (-1162),
    23511, (-1541), 8353, (-10196), 62075, (-24604), 4402, (-2716),
    (-6864), 8386, 2604, (-8976), 4407, (-4004), 1274, 1770,
    6326, 630, (-20834), 493, 16284, 21729, 21491, 32935,
    23070, 5034, 15294, 5842, 17714, 26423, 5364, (-19311),
    24864, 5186, 32128, (-11556), 54926, (-9522), 6451, 17259,
    16094, 27413, 5680, (-12093), 7858, 16637, 13446, (-1186),
    (-810), 6743, 15591, 16114, 1523, 1102, (-18671), 16253,
    52756, 31093, 43071, 33587, 31122, 43199, 1622, 32694,
    28717, 39820, 27420, 27700, 6403, (-25851), (-14643), (-10068),
    (-3367), (-11409), 4108, 5223, 20695, 8288, (-5051), (-3071),
    125, 17426, 15517, 18248, (-2712), 34084, 20562, 32051,
    (-3654), (-61948), (-40552), (-65889), (-58426), (-21711), (-32471), (-11933),
    (-20539), (-31747), (-59525), (-40909), (-13809), 655, 1940, 7483,
    9074, 12601, (-591), (-4390), (-4082), 3605, 3380, 14771,
    26631, 33226, 30765, 13376, 9072, (-7263), (-10831), (-5285),
    56985, 40138, 55249, 48270, 43386, 47445, 34397, 18779,
    37986, 21144, 8127, 2872, 30039, (-544), 13602, 42492,
    73653, 41282, 19898, 26416, 35709, 21761, 13814, 667,
    (-9043), (-19925), 2697, (-16971), 3432, 8241, 18419, 23673,
    (-85), (-42146), (-35657), (-14838), 1697, 2398, 12912, (-13681),
    (-7566), 22666, (-977), 43280, 56711, 14905, 3418, 25125,
    33487, 14396, 14674, 12117, (-517), (-21158), 16440, 19949,
    30002, 38780, 99361, 83028, 50579, 29785, (-9470), 4229,
    52475, 21492, 16589, (-4852), 12635, (-13453), 9414, 30150,
    42524, 14743, (-14171), (-36762), 12302, (-36192), (-22145), (-60313),
    (-26952), (-37308), (-31285), (-4109), 14785, (-6801), (-23822), (-36129),
    (-1286), (-16592), (-8541), (-39206), (-44423), (-8702), 9757, 29744,
    14312, (-11238), (-5951), (-13527), 19928, 105024, 30580, 21274,
    35546, (-8416), (-6288), (-2169), 4084, (-12182), (-6045), 16274,
    17868, 7485, 866, 10662, 25912, 29349, 37032, 19868,
    (-1193), (-36599), (-32719), (-13008), (-17111), 12524, 2348, 10868,
    (-5839), (-39722), (-27448), (-22457), (-53223), 56493, 11848, 7509,
    58907, (-42809), (-58197), 14149, 19052, 29783, 5788, (-4661),
    (-729), (-14684), (-5988), 37832, 25659, 4652, (-35949), (-41660),
    (-32249), (-24917), (-42947), (-14267), (-29583), (-8543), (-34770), (-17561),
    21451, 8069, 14262, 10191, (-44844), (-67531), (-71553), (-180792),
    (-13825), (-68098), 27903, 19046, 31076, (-28472), (-21127), (-12442),
    25700, 23035, 6262, (-17598), (-50873), (-56374), (-22628), (-4914),
    13944, 12741, 19320, 13216, (-5982), (-4045), 1636, 10248,
    46388, 17881, 11745, 14652, 11433, 48486, 58401, 31016,
    50630, 8296, 28075, 33121, 83570, 81934, 68065, 69186,
    82468, 27051, (-5139), 1047, 21546, 24870, 48365, 57229,
    49701, 25394, 7260, (-184), 183, 10870, 20372, 15033,
    18785, (-4731), 20825, 9049, 10024, 4541, 4194, 2278,
    17736, 26589, (-16427), (-33884), (-82261), (-86995), (-86493), (-66035),
    (-1520), 16058, 34677, 28867, 33963, 5525, (-21675), (-14717),
    (-10371), (-8244), 6842, 21608, 20213, 509, (-8103), (-5941),
    24166, (-17378), 8857, 10240, 10939, 4869, 7347, (-2972),
    (-20819), 350, 4664, (-10543), 2115, 8515, 14379, (-32085),
    (-11970), (-29200), 6508, (-20761), 6824, 7246, (-13788), (-11331),
    (-27478), (-5211), 1490, 20740, 25045, 33061, 18099, 20473,
    39031, 308, 2728, 3644, 8582, (-2602), 15236, 13784,
    35940, 28452, 25260, 30028, 54545, 25342, 28838, 23464,
    9712, 3507, 27291, 10171, 14229, 256, 17076, 38109,
    37302, 20387, 18682, (-5550), 3370, (-3915), (-6033), 14181,
    21008, (-1322), (-9740), (-8663), (-6435), (-3445), (-180), 17521,
    (-6961), 778, (-29236), (-21595), (-20493), (-16976), (-6638), 1464,
    3490, (-9573), 9887, 10440, 7023, 2971, (-495), (-8694),
    (-10294), (-8995), 355, 3629, 31898, 32010, 2856, 12684,
    33420, 8991, 26383, 43744, 30383, 19543, 5288, 11306,
    (-1804), (-5106), (-3750), 13056, 15316, 11326, 582, 7765,
    4519, (-4194), (-18492), (-2773), (-25231), 18282, 42218, 12772,
    (-10064), 4383, (-3132), (-13040), (-9146), (-1700), 719, 9400,
    34101, (-11241), (-42571), (-17603), (-14956), 3786, 6350, 9618,
    700, (-1332), 8518, (-752), 9423, 18451, 12593, 13653,
    25484, 25821, 13470, 36495, 30035, 23963, 25862, 23548,
    19633, 43339, 28796, 22359, (-7796), (-19039), (-12759), (-3085),
    9249, (-718), 2873, 25650, 2198, 11106, 10804, 23233,
    1028, (-6428), 13031, (-6817), (-9441), (-10289), (-16750), (-16283),
    (-13199), (-11862), 4033, (-3354), (-24281), (-7288), (-772), (-1063),
    7708, (-71), 6077, 21008, 6977, 8443, 28570, 32681,
    33648, 9691, (-1028), 10261, 1272, (-4495), (-7177), (-8632),
    (-3721), 7103, 10101, 11599, 1466, 16917, 8738, 11568,
    12232, (-4863), 10200, (-1431), (-1983), (-384), (-6804), 4630,
    11485, 22565, 14857, 18781, 10832, 13778, 1739, 1068,
    43021, (-205), (-9199), 2838, 13194, (-14968), 4473, (-4551),
    6346, (-4038), 1159, 17841, 19742, 19831, 2853, (-6791),
    10081, (-1965), 7546, 7799, (-6212), 12355, (-10145), 4490,
    31605, 16307, 16395, 5497, 882, (-18343), (-4455), 15687,
    23639, (-7546), (-3788), 18322, 22988, 23549, 7577, 487,
    (-1298), (-12820), (-9898), (-15573), (-898), (-3688), 10372, (-2863),
    10258, (-2194), 2880, 3468, (-3210), 7943, 26597, (-3965),
    (-9429), 9431, 17894, (-7046), (-8910), 5271, 9901, 13645,
    21108, (-137), 5274, (-1328), (-13341), (-15431), (-11636), (-1501),
    17693, 20098, 26241, 16143, 18342, 2656, (-4517), (-8123),
    (-11588), (-6391), (-17928), (-13160), (-906), (-19294), (-6873), (-17601),
    (-15041), (-22219), (-6602), (-15649), 5768, 3209, 15606, 21204,
    23695, 4674, 3825, 16120, 32994, 31143, 35177, 6363,
    11285, (-224), 13258, (-17381), 19914, (-11169), 3879, 12950,
    10261, 23944, 23350, 40227, 34873, 33826, 28489, 34378,
    25272, 12899, 663, 19061, 16813, 24551, 6173, 28918,
    28788, (-2799), 5811, (-8718), (-3386), (-32954), (-1243), (-2270),
    17134, 20305, 5964, (-8936), 7386, 1659, 3727, (-2045),
    (-5377), (-7402), (-18616), (-2707), (-14967), 1569, (-14258), (-3789),
    12911, 14307, 22552, 31119, 34016, 20983, (-20095), 13175,
    9713, 231, 254, 6486, 7111, 3885, 8512, 13325,
    6601, (-629), (-5749), 7642, 27924, 4476, (-6967), 11456,
    9256, 14394, 8237, 14712, 7169, 16820, 29072, (-6790),
    2448, (-7014), (-26047), (-16911), (-10099), 30736, 6621, 35128,
    30469, 1219, (-8406), (-13481), (-8591), 2549, 1537, (-8661),
    2367, 9224, 9317, (-1537), (-4473), 12059, 6623, 6298,
    958, (-13740), (-5206), (-5273), (-1832), (-4102), 11833, (-11404),
    (-5506), 14230, 16234, 11167, 9008, (-3862), (-4771), 18807,
    22881, 3096, 12968, 7757, (-1710), 5175, 7883, 2854,
    (-385), (-7022), (-22779), (-2576), 631, 13504, 3733, 7987,
    33966, 30397, 18304, 18920, 8713, (-2972), 1680, 6541,
    12954, (-262), (-483), 5412, 2718, 949, (-13741), 9666,
    23533, (-7477), (-2713), 18234, 18273, (-9598), 7537, 11895,
    13367, 12226, 11446, 8268, 4031, 17800, 10326, (-9122),
    (-23362), (-15052), (-5581), 603, 4266, 19547, 12530, 4817,
    551, 18223, 14801, 15278, (-10034), 4333, 12942, 11772,
    22043, (-2605), (-3226), 1122, (-1472), 17997, (-15440), 7457,
    (-15845), 11022, 7298, 9179, 431, (-4079), 740, (-5388),
    5585, 9085, 6812, 3973, (-1135), 2267, (-11188), (-2218),
    (-1942), 4446, (-12097), 10015, 3343, (-11237), 9870, 12768,
    (-13017), (-34576), (-29207), (-19589), (-37300), (-23675), (-33849), (-16530),
    (-31738), (-28954), (-43698), (-28156), (-40191), (-31206), (-26400), (-29882),
    (-20259), (-32552), (-24810), (-40336), (-37308), (-36025), (-35031), (-30547),
    (-41941), (-42240), (-49204), (-45454), (-43527), (-37776), (-43598), (-18304),
};
